{"fc.0.weight":[[0.1189054399728775,-0.7255669832229614,-2.6883888244628906,-1.16930091381073],[0.7897893190383911,0.5921681523323059,0.26469993591308594,0.4362502098083496],[0.33757540583610535,1.2834547758102417,1.2768781185150146,0.6591833829879761],[-0.10577014088630676,-1.27161705493927,-2.8047194480895996,-1.412523865699768],[-0.2320067584514618,0.0677124559879303,-0.061416320502758026,0.24946680665016174],[-0.3036017119884491,-0.13716524839401245,-0.15063969790935516,-0.30349645018577576],[1.434752345085144,-0.008113695308566093,-2.0216009616851807,-0.7934818863868713],[-0.8549063801765442,-1.2786372900009155,0.3150739371776581,-0.5757091641426086],[0.5531134009361267,-0.06070512905716896,-0.9916179776191711,-0.47024425864219666],[0.5032184720039368,-0.6890276670455933,-1.73438560962677,-0.3325499892234802],[0.7213795781135559,0.07489955425262451,0.08181583881378174,0.0014994348166510463],[0.05494317412376404,-0.2146659642457962,-1.072764277458191,-0.8034798502922058],[-1.909368872642517,-0.5263912081718445,1.7504242658615112,0.5612366795539856],[0.3431861400604248,-0.14150495827198029,-1.606798529624939,-0.8215148448944092],[-0.3083851933479309,-0.9853171110153198,0.7365574836730957,-0.36960485577583313],[-1.0416102409362793,-0.8274437189102173,-0.5668829083442688,0.053510285913944244],[0.5494762659072876,0.7504704594612122,0.6404547095298767,0.3453049063682556],[0.04227522388100624,-0.13183653354644775,-0.5252195596694946,-0.27502933144569397],[-0.06656510382890701,-0.5922049283981323,-0.6109917759895325,-0.3086252510547638],[0.43086138367652893,-0.36547109484672546,-0.4387952983379364,-0.48920539021492004],[-0.5071717500686646,0.012505552731454372,-0.04775065556168556,0.16361553966999054],[-0.8118688464164734,-0.6562221646308899,0.6037908792495728,-0.12109237164258957],[0.02976682223379612,-0.17416314780712128,-1.2713388204574585,-0.6536547541618347],[-0.2046225666999817,-0.1866568624973297,-1.365926742553711,-0.2507469356060028],[-0.34208738803863525,-0.1627938449382782,-0.032467275857925415,-0.3087763488292694],[0.6003590822219849,0.6459991335868835,-0.04500732198357582,0.38864701986312866],[0.29010695219039917,-0.2773779332637787,-1.4161295890808105,-0.9595193266868591],[0.5570316910743713,0.5518969893455505,0.16054950654506683,0.3056425452232361],[0.19458550214767456,0.8809877038002014,2.1380844116210938,1.0378223657608032],[1.1566805839538574,0.04627653583884239,-0.3456047773361206,-0.5087077617645264],[0.23736833035945892,0.5506620407104492,0.6172672510147095,0.4536089301109314],[0.3804965317249298,-0.23879693448543549,0.21988724172115326,-0.06931207329034805]],"fc.0.bias":[0.7279777526855469,0.4764208495616913,0.6541744470596313,-0.4809989929199219,1.0303945541381836,0.9869282245635986,0.8855962753295898,-0.4492834806442261,-0.3364774286746979,0.955634355545044,0.6401193737983704,1.1152724027633667,-1.0785523653030396,1.062301516532898,-0.024523813277482986,0.6416302919387817,0.39645102620124817,0.9876358509063721,0.7594510912895203,0.8929619193077087,1.1350741386413574,0.21854718029499054,1.1417278051376343,1.1270177364349365,0.8709064722061157,0.5658816695213318,1.1511644124984741,0.6103711724281311,0.11355476826429367,0.8991936445236206,0.2957632839679718,0.8584875464439392],"fc.2.weight":[[-1.455479383468628,0.40400293469429016,-0.07606984674930573,-1.8936883211135864,0.3068225085735321,0.6938017010688782,-0.8558136224746704,1.4581085443496704,-1.043258547782898,0.8392756581306458,0.6747468113899231,0.9471478462219238,-0.33821940422058105,0.9306401014328003,0.7107781171798706,0.470730185508728,0.4505346417427063,0.5984892249107361,0.6841021180152893,0.6658743023872375,0.6185619235038757,0.24711108207702637,0.6689163446426392,0.6388813257217407,0.6099243760108948,0.5387874841690063,0.8822474479675293,0.4933858811855316,-1.1838529109954834,-0.1566586047410965,0.5660985112190247,0.627638041973114],[-1.5960490703582764,0.17036068439483643,-0.5627954602241516,-1.9988160133361816,0.2020929753780365,0.21198232471942902,-1.206325650215149,1.5272424221038818,-0.22137077152729034,0.8713045716285706,0.330177366733551,0.43009570240974426,-0.5300270915031433,0.47312355041503906,0.6945571899414062,0.5998427867889404,-0.03359638899564743,0.14936885237693787,0.7379181385040283,0.43657732009887695,0.2911175787448883,0.4630277454853058,0.5684788823127747,0.4422016441822052,0.49048250913619995,0.09519744664430618,0.5082855224609375,0.1392587572336197,-1.3997094631195068,-0.6373055577278137,0.29283857345581055,0.5088423490524292],[-1.538970708847046,0.4161463975906372,0.009852911345660686,-2.044206142425537,0.5368787050247192,0.5144702196121216,-0.6210551261901855,1.5300458669662476,-0.7825957536697388,1.0154304504394531,0.48637619614601135,0.9238853454589844,-0.18131235241889954,0.7578798532485962,0.7608920335769653,0.4867996275424957,0.5895740389823914,0.42978525161743164,0.6078861355781555,0.7038506865501404,0.45222175121307373,0.2617516815662384,0.7333945631980896,0.6751435995101929,0.5195261836051941,0.664180338382721,1.0720798969268799,0.5226897597312927,-0.9793532490730286,-0.3264249563217163,0.6089915633201599,0.6665690541267395],[1.530594825744629,-2.064420461654663,-4.016981601715088,2.018798589706421,-1.3644872903823853,0.13916067779064178,1.1591640710830688,0.44285497069358826,0.036897726356983185,0.5975031852722168,-0.11128385365009308,0.27810221910476685,0.9526301622390747,0.6967915296554565,0.05037403851747513,-0.771251380443573,-2.048903465270996,-0.08672012388706207,-0.16276201605796814,0.0754186362028122,-1.161196231842041,0.6649154424667358,0.4133282005786896,0.21208339929580688,-0.3516562283039093,-1.5033682584762573,0.5778132081031799,-0.8810315728187561,-0.5058362483978271,0.6413975954055786,-1.902204990386963,-1.426655650138855],[-1.5017213821411133,0.45786455273628235,-0.030858207494020462,-2.042572021484375,0.6589767336845398,0.5486359596252441,-0.5352043509483337,1.3861478567123413,-1.0340321063995361,0.9509294033050537,0.4951358437538147,0.8421332240104675,-0.17478767037391663,0.958417534828186,0.5918797850608826,0.5747929811477661,0.5949246287345886,0.7272335886955261,0.7407005429267883,0.6662372350692749,0.4760091006755829,0.3804124593734741,0.8082055449485779,0.5878004431724548,0.643538773059845,0.6104976534843445,0.9299101233482361,0.42922961711883545,-1.1718106269836426,-0.17311230301856995,0.6637563705444336,0.6399995684623718],[-0.13539303839206696,0.03333624452352524,-0.04464881494641304,-0.11737443506717682,-0.07051815837621689,0.10723359882831573,0.13205371797084808,-0.05088028684258461,-0.039089664816856384,0.09834514558315277,-0.12693198025226593,-0.13279111683368683,-0.11928990483283997,-0.13552850484848022,-0.04517899453639984,-0.1660369485616684,-0.11349570006132126,-0.10266543924808502,-0.06986737251281738,-0.1335732787847519,-0.07695337384939194,0.06856943666934967,-0.06326907128095627,-0.0608791746199131,-0.006876096595078707,0.09562194347381592,0.10246521234512329,0.11600992828607559,0.0684635266661644,0.05526452511548996,-0.11721530556678772,-0.193191260099411],[0.6585021018981934,-0.6573942303657532,-0.6346945762634277,1.1796677112579346,0.3663431704044342,0.3488297462463379,-0.9956456422805786,1.444972038269043,-0.4898768365383148,0.4001680016517639,-0.6209497451782227,0.42477720975875854,0.7850973010063171,0.2676964998245239,0.7938264012336731,0.4664287269115448,-1.243137240409851,-0.10198532044887543,0.6031608581542969,-0.2450413554906845,0.31077107787132263,0.4410284757614136,0.5812987089157104,0.35535141825675964,0.3222240209579468,-0.6781535148620605,0.4022164046764374,-0.9450101256370544,0.13143770396709442,-0.5139361023902893,-1.5396941900253296,-0.02629188820719719],[-0.025886863470077515,-0.1490102857351303,0.16393111646175385,0.12601535022258759,0.17299778759479523,0.046501144766807556,-0.12886561453342438,-0.11751523613929749,0.12009827792644501,-0.15758778154850006,0.05189245939254761,-0.024233683943748474,-0.14348839223384857,-0.13652855157852173,0.03134790062904358,-0.15705765783786774,-0.021856173872947693,0.07056640088558197,0.016587495803833008,-0.13853171467781067,-0.02866455912590027,-0.16374613344669342,0.14192421734333038,-0.17597472667694092,-0.013384178280830383,-0.1546911597251892,-0.1679038107395172,-0.0646672174334526,0.1261473149061203,0.16430209577083588,-0.11928579956293106,-0.17664702236652374],[-3.835268497467041,1.1223139762878418,1.8970590829849243,-2.0517842769622803,0.7464734315872192,0.06051793694496155,-1.520963430404663,-1.1917668581008911,0.3215271532535553,-2.0908186435699463,0.3651421070098877,-1.1484334468841553,0.9989952445030212,-1.6842541694641113,-0.5711053013801575,0.008981950581073761,1.4871774911880493,-0.17907051742076874,-0.8610016703605652,-0.3619112968444824,0.6502686738967896,-1.1522291898727417,-1.6851251125335693,-0.13379071652889252,0.3263758718967438,0.8688051104545593,-1.6287959814071655,1.0109437704086304,1.96210515499115,-0.8153576254844666,1.7729072570800781,0.6501909494400024],[-1.629768967628479,0.6247779130935669,0.09953130036592484,-2.1066815853118896,0.45411667227745056,0.5634278655052185,-0.8253400921821594,1.5589884519577026,-0.7658284306526184,0.7197132706642151,0.5015578866004944,0.664945125579834,-0.25755810737609863,0.712516725063324,0.7647085189819336,0.5983297228813171,0.7435080409049988,0.38563457131385803,0.8299754858016968,0.680528998374939,0.7043235898017883,0.3131086230278015,0.5944564342498779,0.7450507879257202,0.5836545825004578,0.6605050563812256,0.860431432723999,0.4452017843723297,-0.9690991640090942,-0.13680309057235718,0.3597927689552307,0.717969536781311],[0.027029667049646378,-0.2270435094833374,0.04670252278447151,0.1338449865579605,-0.05382208898663521,-0.1576133817434311,0.12176617980003357,0.11123781651258469,0.12181280553340912,-0.17185093462467194,-0.0917106419801712,-0.11727862805128098,-0.0835050493478775,-0.154754176735878,-0.058093827217817307,0.05527805536985397,-0.13738134503364563,-0.10977107286453247,-0.03046100027859211,-0.18862591683864594,0.05802755057811737,-0.1701282113790512,0.10309140384197235,-0.1808687299489975,-0.19201529026031494,-0.21666721999645233,0.09049831330776215,0.07614841312170029,0.06500302255153656,0.13604827225208282,-0.1793426126241684,0.005859993863850832],[-2.4771316051483154,0.6169983148574829,1.047316312789917,-1.1432281732559204,0.3839704990386963,-0.18171846866607666,-1.952299952507019,-0.910334587097168,0.4659162759780884,-2.0628018379211426,0.3377649188041687,-1.012604832649231,0.09790856391191483,-1.4415552616119385,-0.2729475796222687,-0.25135108828544617,0.8750643730163574,0.09756892919540405,-1.0610456466674805,-0.1849047690629959,0.45496416091918945,-1.2490556240081787,-1.659706711769104,-0.3262806236743927,0.1288289576768875,0.5729791522026062,-1.4199031591415405,0.7192131876945496,1.830489993095398,-1.4423331022262573,1.0339425802230835,0.5338678359985352],[-1.3397246599197388,0.5749468803405762,-0.14265619218349457,-2.0557310581207275,0.4170643389225006,0.6551037430763245,-0.6191374659538269,1.418617606163025,-1.1169519424438477,0.9029304385185242,0.6014676690101624,0.7929989099502563,-0.40425413846969604,1.0029350519180298,0.8277513384819031,0.6637254953384399,0.7082448601722717,0.4164397716522217,0.6795461773872375,0.7840702533721924,0.5830559134483337,0.31937044858932495,0.8822024464607239,0.6383188366889954,0.7094205617904663,0.4132996201515198,0.8575738072395325,0.5808225274085999,-1.0387276411056519,0.021334076300263405,0.6682950854301453,0.3388506770133972],[-0.007677596993744373,-0.9325958490371704,-0.0737457424402237,0.19266141951084137,-0.5464417338371277,-0.061428435146808624,-0.20453175902366638,0.1658899039030075,-0.07790888845920563,0.18972690403461456,-1.3268967866897583,0.11493212729692459,0.3190521001815796,-0.18876715004444122,-0.03947058320045471,0.022876430302858353,-0.4569351077079773,-0.6517313122749329,0.07727847993373871,-0.7489535808563232,-0.28538262844085693,0.11071044951677322,-0.07865447551012039,0.024427380412817,-0.18834750354290009,-0.9233358502388,0.01561480201780796,-0.9533869028091431,-0.07613199204206467,-1.0563793182373047,-0.3425697982311249,-0.9760591983795166],[-2.2444279193878174,0.7580367922782898,0.9612118005752563,-0.27102386951446533,0.6216250061988831,-0.1056789681315422,-2.206275701522827,-0.8282604217529297,0.30557236075401306,-2.1198837757110596,0.40567559003829956,-0.9207918047904968,0.3134073317050934,-1.3995686769485474,-0.5132176876068115,-0.0670347511768341,0.756677508354187,0.12132667750120163,-0.7901241779327393,-0.11079715937376022,0.42848703265190125,-1.476922631263733,-1.706002950668335,-0.36193692684173584,0.3143225312232971,0.6718779802322388,-1.324671745300293,0.4333021342754364,1.841723084449768,-1.5408377647399902,0.9656957387924194,0.5687097311019897],[-1.3314954042434692,0.5822058916091919,-0.019018929451704025,-2.058881998062134,0.46752867102622986,0.4064355492591858,-0.4170565605163574,1.4032418727874756,-0.8905978798866272,0.9853779673576355,0.42610254883766174,0.7668562531471252,-0.4527890086174011,0.970689594745636,0.7139549851417542,0.7184808850288391,0.7415492534637451,0.5724747776985168,0.847078800201416,0.5163060426712036,0.5541452765464783,0.4587782323360443,0.8629613518714905,0.7169370055198669,0.6640046834945679,0.5250639319419861,0.9970476031303406,0.7159450650215149,-1.2011699676513672,-0.3101760745048523,0.4016515016555786,0.5653696060180664],[-0.15006612241268158,-0.1795901209115982,0.11801294982433319,-0.15164540708065033,0.021218223497271538,0.12280528247356415,-0.1689644157886505,-0.16205018758773804,-0.04231490194797516,0.055497750639915466,-0.14548946917057037,-0.09955143183469772,0.026544485241174698,0.13863405585289001,-0.015233928337693214,-0.18234114348888397,-0.12162406742572784,-0.0885976254940033,0.10044866800308228,0.1259130835533142,-0.12749241292476654,-0.06697452068328857,-0.15064705908298492,0.133876234292984,-0.04796307906508446,-0.03450555354356766,-0.09826837480068207,-0.16126671433448792,-0.07220214605331421,-0.06519999355077744,-0.11893834173679352,0.06851261854171753],[-0.08305743336677551,-0.07964637875556946,-0.1132025420665741,-0.11804583668708801,0.06592448800802231,-0.12008674442768097,-0.1328275501728058,-0.0731608048081398,0.0013257861137390137,0.10849553346633911,0.130056232213974,0.04898587241768837,-0.16813470423221588,-0.04234321042895317,0.08385483175516129,-0.01282605528831482,-0.004390462301671505,0.13822193443775177,0.02178286761045456,-0.19089019298553467,-0.046373557299375534,0.04697820171713829,0.12025106698274612,-0.18922430276870728,-0.09405624866485596,-0.16126742959022522,-0.04758019372820854,0.08980309963226318,0.0464281290769577,0.044999923557043076,-0.12263182550668716,-0.05678500607609749],[-1.446661353111267,0.6833299994468689,-0.032092977315187454,-1.8746283054351807,0.5910854935646057,0.5189364552497864,-0.539726972579956,1.5337395668029785,-0.9416341185569763,1.0457839965820312,0.4610016345977783,0.9503118395805359,-0.18540330231189728,0.9120923280715942,0.6481115221977234,0.7570835947990417,0.4430859088897705,0.5456376671791077,0.7337040901184082,0.6427196860313416,0.4437742829322815,0.4330548346042633,0.8340833783149719,0.6468507647514343,0.5920944213867188,0.34303733706474304,0.923206090927124,0.6123315691947937,-0.9091693758964539,-0.11437048763036728,0.46209168434143066,0.5429354310035706],[-1.6656301021575928,0.7465901970863342,0.7584275007247925,-3.448375940322876,0.5924323201179504,0.1518571674823761,-0.7728715538978577,-1.3419175148010254,-2.6499412059783936,0.4541735053062439,0.11705096065998077,0.209642693400383,1.23273766040802,0.198212131857872,-0.3061129152774811,0.4769706428050995,0.43416503071784973,0.26086801290512085,0.5260593295097351,0.3124392032623291,0.7702642679214478,-0.35770735144615173,0.05098862200975418,0.4721081554889679,0.4214780032634735,0.7164559960365295,0.3917723596096039,0.08818206936120987,-3.7116897106170654,-1.1942561864852905,0.5731680989265442,0.9718594551086426],[-1.3834190368652344,0.7086264491081238,0.14273889362812042,-1.9704625606536865,0.45717447996139526,0.35335859656333923,-0.21800623834133148,1.2407430410385132,-0.8851989507675171,0.9998325705528259,0.5747287273406982,1.0287901163101196,0.0058996607549488544,0.9301183819770813,0.7626535296440125,0.5197189450263977,0.3400762975215912,0.4393080472946167,0.6483829021453857,0.5271047353744507,0.4175739288330078,0.27436521649360657,0.6298791170120239,0.9457679390907288,0.6747656464576721,0.6907510161399841,1.0390870571136475,0.508741021156311,-1.02371346950531,0.014946418814361095,0.4951677918434143,0.6986069679260254],[0.44134145975112915,0.027249956503510475,-0.7467834949493408,1.2067369222640991,0.17062464356422424,0.5698214769363403,-0.214923694729805,-0.6647316813468933,0.08252960443496704,0.03266855329275131,0.49413904547691345,0.15960122644901276,-4.102386474609375,0.06846365332603455,1.0321576595306396,0.4618833363056183,0.17347298562526703,0.3674122393131256,0.16735242307186127,0.3437843918800354,0.09708204120397568,1.160314679145813,0.4982779026031494,0.052362170070409775,0.1600501835346222,0.04990079998970032,0.15618851780891418,0.2850745618343353,0.4615841209888458,0.25419455766677856,0.3813091814517975,0.07641313225030899],[-1.3030909299850464,0.40261951088905334,-0.1080092191696167,-2.0337345600128174,0.45426952838897705,0.5227609872817993,-0.4349049925804138,1.3287289142608643,-0.7997105121612549,1.0761919021606445,0.4558507204055786,0.8625126481056213,-0.10952538996934891,0.9215058088302612,0.6976673603057861,0.68112713098526,0.629655659198761,0.6088008284568787,0.718995213508606,0.8350115418434143,0.5230377316474915,0.3972930610179901,0.6406285762786865,0.7884020209312439,0.5676326155662537,0.6192991137504578,0.9737880229949951,0.5416728854179382,-1.108347773551941,-0.17161527276039124,0.5484732389450073,0.5518454313278198],[1.4753164052963257,-0.8482456803321838,-3.0075204372406006,2.092054605484009,-0.15350310504436493,0.3888254761695862,1.28988516330719,0.039683617651462555,-0.02197077125310898,1.5037841796875,0.11399447172880173,0.9900139570236206,-0.7651879191398621,1.1847554445266724,0.6261001825332642,0.3881548345088959,-1.6662813425064087,0.8245577812194824,0.8042818903923035,0.7119283080101013,0.14180982112884521,1.210996150970459,0.8690513968467712,0.6288580894470215,0.36043670773506165,-0.7541870474815369,1.2421939373016357,-0.17887286841869354,-2.310185194015503,0.9708930850028992,-1.4303367137908936,0.17444860935211182],[-0.11892560124397278,-0.10901912301778793,0.08137689530849457,-0.13878823816776276,-0.08638304471969604,-0.034879885613918304,0.1180320605635643,0.0335792601108551,0.09559129178524017,-0.13741421699523926,-0.14083734154701233,0.04818039759993553,-0.028378993272781372,-0.02264038845896721,-0.08554316312074661,0.13565881550312042,0.11940436065196991,0.02936597540974617,-0.15275245904922485,-0.039693981409072876,-0.14520904421806335,-0.10260608047246933,0.13441769778728485,-0.031643252819776535,-0.13156269490718842,0.15615703165531158,-0.1368863582611084,0.055655624717473984,-0.08206512033939362,0.06238154321908951,-0.019983254373073578,-0.18614532053470612],[0.12167683243751526,-0.12041053175926208,0.0445283018052578,0.10694009810686111,-0.06925539672374725,0.01411851029843092,0.12793640792369843,0.09235282987356186,-0.03457590937614441,-0.16674412786960602,-0.041670799255371094,-0.18114438652992249,0.0435541607439518,-0.11740230768918991,-0.16492198407649994,-0.0636632964015007,0.0031800270080566406,-0.1328679919242859,0.02412359043955803,-0.13158874213695526,-0.17325757443904877,-0.08157970011234283,-0.19150547683238983,-0.048896580934524536,0.0025093096774071455,-0.005684307776391506,-0.15192344784736633,-0.14036841690540314,0.09170712530612946,0.06791995465755463,0.03545336425304413,-0.1623920053243637],[-1.5117853879928589,0.5190057754516602,-0.042515095323324203,-2.1342623233795166,0.49968472123146057,0.42985647916793823,-0.6459947228431702,1.2509245872497559,-0.7926672697067261,1.1307272911071777,0.6049943566322327,0.9421074986457825,-0.3168127238750458,0.9086086750030518,0.564938485622406,0.7302553653717041,0.5452617406845093,0.4580004811286926,0.7856520414352417,0.6189393401145935,0.43702080845832825,0.41850507259368896,0.8450255393981934,0.7702750563621521,0.46291685104370117,0.4206969439983368,1.0224084854125977,0.618870198726654,-1.010075569152832,-0.10504093766212463,0.5430553555488586,0.5673134326934814],[-0.09726610779762268,-0.1645270437002182,-0.06722188740968704,-0.10649098455905914,-0.04203590005636215,0.014535913243889809,0.01616845838725567,-0.20024609565734863,0.07429759204387665,-0.03905826061964035,0.0649036318063736,-0.039313845336437225,-0.06516542285680771,-0.210743248462677,0.11545830965042114,0.08939497917890549,0.05949736759066582,-0.16046680510044098,-0.07331350445747375,-0.1416330188512802,-0.030505210161209106,-0.09102265536785126,0.12356725335121155,-0.017364634200930595,-0.05385611951351166,0.051538024097681046,-0.055908333510160446,0.06137087941169739,-0.018249716609716415,0.04014657065272331,-0.05542449280619621,-0.24526962637901306],[-1.520504117012024,0.6150990724563599,-0.14824780821800232,-1.846379280090332,0.4364446997642517,0.36469149589538574,-0.5092465281486511,1.6137471199035645,-1.0818235874176025,0.796534538269043,0.6969896554946899,0.7555028796195984,-0.37548521161079407,0.8977780938148499,0.7052849531173706,0.5097711086273193,0.7050073742866516,0.5940573215484619,0.5990270972251892,0.5490509271621704,0.4885248839855194,0.19835801422595978,0.671133816242218,0.5544525980949402,0.6810047626495361,0.41866105794906616,0.9205268621444702,0.5027254223823547,-0.9465060830116272,-0.2853573262691498,0.41459769010543823,0.4110180139541626],[-0.11677969247102737,0.05734262987971306,0.012026569806039333,-0.07889404892921448,-0.15852153301239014,-0.11942892521619797,-0.030190760269761086,0.08593414723873138,-0.12534165382385254,0.06516998261213303,-0.050042010843753815,-0.1448073536157608,-0.14908525347709656,0.09113011509180069,-0.123033307492733,-0.1749601662158966,0.08758077770471573,0.016571516171097755,0.10702338814735413,-0.04760539159178734,-0.07381147891283035,0.05524280294775963,-0.05935229733586311,0.007624062709510326,0.1308523267507553,0.13794757425785065,-0.008197309449315071,-0.18336103856563568,-0.15245214104652405,0.044163625687360764,-0.19710171222686768,-0.21146617829799652],[0.027605324983596802,0.008887078613042831,0.11006920784711838,-0.1504354029893875,-0.12483920156955719,0.09174231439828873,-0.07153350859880447,-0.0029191114008426666,-0.10850565135478973,0.07401996105909348,0.13204723596572876,-0.017798515036702156,0.08292918652296066,-0.11655760556459427,-0.014411180280148983,-0.005675296764820814,-0.16462157666683197,-0.2034042924642563,-0.08836774528026581,0.009528988040983677,-0.22984544932842255,-0.1248689740896225,0.13029712438583374,0.027188505977392197,-0.05482066422700882,-0.007090813480317593,-0.09111004322767258,-0.07758430391550064,0.08988212794065475,0.0005827700369991362,-0.17111200094223022,-0.19744537770748138],[-1.9166840314865112,0.39412906765937805,-0.3165203630924225,-2.697885274887085,-0.0019027284579351544,-0.028069451451301575,-0.7449952960014343,0.5402494072914124,-0.2529095411300659,0.45884811878204346,0.5669825673103333,0.3045559823513031,-0.6980539560317993,0.6592874526977539,-0.687113344669342,-0.4720597267150879,0.38502535223960876,0.3826145529747009,0.1328006088733673,0.5343430638313293,-0.09446421265602112,-0.7125494480133057,0.3419572412967682,0.14964835345745087,-0.007822372950613499,0.18009789288043976,0.6413742899894714,0.5492904782295227,-1.0226718187332153,0.03838736191391945,0.08391711115837097,0.06176195666193962]],"fc.2.bias":[0.4390847980976105,0.2547011971473694,0.7818222045898438,-0.09085316956043243,0.523495078086853,-0.09706234931945801,0.185933917760849,-0.13897351920604706,0.04090683534741402,0.4535888731479645,-0.17518356442451477,0.04959210380911827,0.46660006046295166,-0.18868522346019745,0.013289027847349644,0.6171368956565857,-0.003325618337839842,0.08011310547590256,0.56623774766922,0.7806219458580017,0.7111687660217285,0.4179414212703705,0.5671118497848511,0.6847326755523682,-0.1781182438135147,-0.11369766294956207,0.6322908997535706,0.10261644423007965,0.6687583923339844,0.02841426245868206,-0.0732908770442009,0.3551730215549469],"fc.4.weight":[[1.1050530672073364,1.5027409791946411,0.8822799921035767,-1.9607977867126465,0.902661919593811,-0.10623244941234589,1.1977219581604004,0.12896572053432465,-2.4592325687408447,1.0791981220245361,0.10011672973632812,-0.44368499517440796,0.998744010925293,0.13175061345100403,-0.9668509364128113,0.9063918590545654,-0.1186378002166748,0.013746763579547405,0.8748118877410889,-1.5162160396575928,0.6633477210998535,0.0001717830600682646,0.7898250222206116,-1.2939329147338867,0.06739979982376099,0.13293825089931488,0.926499605178833,-0.10176332294940948,1.1092199087142944,-0.14371228218078613,-0.004407390486449003,1.6359918117523193],[0.8752611875534058,0.737736701965332,0.9840185046195984,-1.4387562274932861,1.0086828470230103,0.07169102132320404,0.7905830144882202,0.1731991022825241,-1.2396050691604614,1.00444757938385,0.046334877610206604,-2.279287338256836,0.8358778357505798,0.7891628742218018,-2.2383170127868652,0.9814713597297668,-0.04780643805861473,-0.021723374724388123,0.9609342217445374,0.31367918848991394,1.0200209617614746,-1.2979729175567627,0.9930418133735657,-1.730009913444519,0.14420868456363678,-0.06959851831197739,1.0945682525634766,-0.11387071013450623,1.0620272159576416,-0.12008063495159149,-0.07333815842866898,0.9930847883224487]],"fc.4.bias":[0.3901871144771576,0.3258346617221832]}