{"fc.0.weight": [[1.418074131011963, 2.8760671615600586, 1.2028427124023438, -0.1361374408006668], [-0.2782139480113983, -0.22576501965522766, 4.358623027801514, 1.1737147569656372], [-1.6218701601028442, -1.8208777904510498, 1.9679161310195923, -0.23680876195430756], [-0.07550691813230515, -0.12113345414400101, 1.5677480697631836, 0.277209997177124], [0.2959493100643158, -0.12969321012496948, 0.14355039596557617, 0.016375498846173286], [-0.358085960149765, -0.0644167959690094, 2.121387243270874, 0.3609158396720886], [-0.4934549033641815, -0.21775652468204498, 2.138853073120117, 0.10225015878677368], [-0.20879581570625305, -0.5667214393615723, 0.5606974363327026, -0.0794592946767807], [-3.2113208770751953, -0.9048649668693542, 0.11104197800159454, -0.5513525009155273], [0.13844291865825653, -0.13936026394367218, -0.4200498163700104, -0.584922730922699], [0.21325303614139557, -0.22225579619407654, 0.4234987199306488, 0.1004934161901474], [0.10215511918067932, -0.4671170115470886, -8.319656372070312, -1.7319602966308594], [-0.12408463656902313, 0.39805862307548523, 1.3203542232513428, 0.5671160817146301], [0.34231245517730713, 0.1891455501317978, 0.10561326146125793, 0.09001529216766357], [-0.05459827184677124, 0.08628933876752853, 1.2964190244674683, 0.5573716759681702], [0.8404432535171509, 0.9034917950630188, 5.571182727813721, 1.4215112924575806], [1.6135469675064087, 0.5798776745796204, -1.670741319656372, -0.36097395420074463], [1.1236976385116577, 1.143043875694275, 4.281512260437012, 2.100003480911255], [-0.26601141691207886, 0.00809085089713335, 0.7276071310043335, -0.28553506731987], [-0.6086723208427429, -0.15438024699687958, 0.8347710967063904, 0.2520872950553894], [0.08013307303190231, -0.048244327306747437, 0.2525102198123932, -0.43211281299591064], [1.338052749633789, 2.1119120121002197, -3.227264881134033, -0.6097505688667297], [1.4128055572509766, -0.5021368265151978, -6.010059833526611, -1.9469988346099854], [-0.5199904441833496, -0.9620174169540405, 2.7066783905029297, -0.12837693095207214], [0.04367736726999283, 0.04542761668562889, 1.3543899059295654, 0.20075543224811554], [-0.548167884349823, -0.1745954155921936, 1.1904994249343872, 0.11486608535051346], [2.2721011638641357, 1.5385280847549438, -1.5964343547821045, -0.5709517598152161], [0.5947610139846802, 1.0521000623703003, 3.7101683616638184, 1.489275574684143], [-0.2004033327102661, -0.5379655361175537, 0.2429613322019577, -0.28816795349121094], [0.5661083459854126, 0.5139548182487488, -0.9478017091751099, 0.06833305954933167], [1.345475435256958, 0.5766997337341309, -0.894576907157898, -0.15548188984394073], [0.15850163996219635, 0.010191059671342373, 0.12496380507946014, 0.06995199620723724]], "fc.0.bias": [-0.391097754240036, 0.7797707915306091, 1.25326406955719, 1.469385027885437, 1.4242056608200073, 1.3748044967651367, 1.4888732433319092, 1.670167088508606, 0.7053282260894775, 1.3785961866378784, 1.7145193815231323, 1.5954736471176147, 1.718629240989685, 1.3952034711837769, 1.6643787622451782, -0.4997807443141937, 1.0853245258331299, -0.028165189549326897, 1.4130725860595703, 1.638441562652588, 1.178295373916626, 1.2067608833312988, 1.1931114196777344, 2.30499529838562, 1.3405448198318481, 1.4914875030517578, -0.26189300417900085, -0.5608866810798645, 1.7003644704818726, 1.6702830791473389, 1.2494758367538452, 1.364924430847168], "fc.2.weight": [[0.0998942106962204, -0.19276006519794464, 0.032562315464019775, 0.0862869992852211, 0.07990328967571259, 0.05794234946370125, -0.1254826784133911, -0.16189293563365936, -0.031008405610919, 0.04803541302680969, 0.018180236220359802, 0.08428565412759781, 0.009319057688117027, -0.08666791766881943, -0.20982271432876587, 0.05135861784219742, -0.1744290292263031, 0.03201274946331978, -0.04889071360230446, -0.0034681507386267185, 0.1438480168581009, -0.14614100754261017, -0.1385698914527893, -0.004664839711040258, 0.11141909658908844, 0.008271021768450737, -0.05729600787162781, 0.011881380341947079, -0.17994990944862366, 0.011237823404371738, 0.07042891532182693, -0.013848617672920227], [-2.7950992584228516, 0.027370527386665344, 0.4080107808113098, 0.4536212980747223, 0.19191329181194305, 0.020530110225081444, 0.5188411474227905, 0.5460394620895386, -1.9526252746582031, 0.23574143648147583, 0.4731013774871826, -0.027047637850046158, 0.15213507413864136, 0.02524229697883129, 0.0110713429749012, -1.2287304401397705, -0.12600046396255493, -5.176226615905762, 0.45304813981056213, 0.6491477489471436, 0.4975862205028534, -1.3887550830841064, -0.9494468569755554, 0.7206629514694214, 0.14468763768672943, 0.4106561243534088, 0.5074378848075867, -2.292226791381836, 0.5590627789497375, 0.0036582008469849825, 0.06580909341573715, 0.02909068390727043], [-1.9059534072875977, -2.090420722961426, -0.8526834845542908, 0.108556367456913, -0.06370528787374496, 0.31939613819122314, -0.0700952410697937, 0.1439286768436432, -1.3183362483978271, 0.21147002279758453, -0.007602766156196594, -0.7622829675674438, 0.21564669907093048, 0.09587458521127701, 0.04475528374314308, -2.0177929401397705, 0.07247354835271835, -1.3223121166229248, -0.1066497415304184, 0.14366796612739563, 0.1292107254266739, -0.7997531294822693, -1.6355316638946533, 0.05639559403061867, 0.08890388906002045, 0.07042889297008514, -1.1655970811843872, -1.4480774402618408, 0.011810293421149254, 0.03828798606991768, -0.14638933539390564, 0.11226779222488403], [-2.1262571811676025, 1.241247534751892, 0.2834947109222412, 1.0993415117263794, 0.48426786065101624, 1.3607746362686157, 1.5092483758926392, 0.9599637985229492, -0.35450124740600586, 0.13835272192955017, 0.7006178498268127, -2.2424535751342773, 1.1155524253845215, 0.3198111951351166, 0.9812931418418884, 1.516327977180481, -0.9604021310806274, 0.3769151270389557, 0.7972736358642578, 1.292746663093567, 0.5023741722106934, -2.063328504562378, -3.650878667831421, 1.5417317152023315, 0.9693643450737, 1.0497654676437378, -1.4898920059204102, 0.8671430349349976, 0.7740065455436707, -0.10308976471424103, 0.1711178719997406, 0.8845268487930298], [-0.15882471203804016, -0.10861393809318542, 0.010566825047135353, -0.11288727074861526, -0.0926596149802208, 0.011878157034516335, 0.04290357232093811, -0.0651899129152298, -0.1785632073879242, -0.1829518973827362, -0.14412584900856018, -0.05190929025411606, 0.035369060933589935, -0.07568027824163437, -0.01749340444803238, -0.12006804347038269, 0.026419347152113914, 0.05396896228194237, 0.06122636795043945, 0.007782021537423134, 0.030092798173427582, -0.061026692390441895, 0.014382711611688137, -0.08617670089006424, -0.18299159407615662, -0.0771373063325882, 0.10995256900787354, 0.11840853840112686, 0.11881210654973984, 0.05137468874454498, -0.17744505405426025, 0.1084781289100647], [1.4649921655654907, -1.0940501689910889, -2.0594539642333984, 0.7207992076873779, 0.5181460380554199, 0.22790032625198364, 0.24268242716789246, 0.25444847345352173, -3.3354146480560303, 0.5668567419052124, 0.5260719656944275, -4.680875301361084, 0.7041869163513184, 0.7712966203689575, 0.5919724702835083, -2.030097484588623, 1.3953663110733032, -0.28572553396224976, 0.5404683351516724, 0.27585354447364807, 0.6372408866882324, 1.038946509361267, -5.904365539550781, 0.026194145902991295, 0.6356078386306763, 0.38451236486434937, -0.9514317512512207, -2.462096929550171, 0.2593812346458435, 1.0917693376541138, 0.9726977944374084, 0.8484272360801697], [1.9460567235946655, -0.6324431896209717, -0.37072017788887024, 1.2034246921539307, 1.2470871210098267, 1.117891788482666, 0.9353361129760742, 1.1806039810180664, -1.386104702949524, 1.0600316524505615, 1.4276199340820312, -0.5640472769737244, 1.13489830493927, 1.2724292278289795, 1.3369431495666504, -2.4465534687042236, 1.505937099456787, -1.9374383687973022, 1.161353349685669, 1.275609016418457, 1.228001594543457, 0.3990476727485657, -2.1756763458251953, 1.1452703475952148, 1.1549363136291504, 1.1393684148788452, -2.616704225540161, -2.4658966064453125, 1.3380001783370972, 1.3145643472671509, 1.1449642181396484, 0.9986318945884705], [0.07902441918849945, -0.15751080214977264, 0.0510411411523819, -0.06880032271146774, 0.09159086644649506, 0.03482496738433838, -0.061155810952186584, 0.05635745823383331, -0.1423814296722412, 0.1337788850069046, -0.10677176713943481, -0.051390647888183594, 0.012046962976455688, 0.10243605077266693, -0.1338190883398056, -0.1394377201795578, -0.10571443289518356, 0.11231325566768646, -0.06155865639448166, -0.0684981495141983, -0.08971921354532242, -0.12584207952022552, -0.08214224874973297, -0.12545226514339447, -0.16584129631519318, -0.11138145625591278, -0.0418383926153183, -0.03286883234977722, -0.17115242779254913, 0.015045195817947388, -0.1124635711312294, -0.09415915608406067], [1.15500807762146, -0.9303460121154785, 0.532173752784729, 1.5301613807678223, 1.4307781457901, 1.2237190008163452, 1.2994959354400635, 1.4363396167755127, -0.3939812481403351, 1.3845109939575195, 1.458126187324524, -0.2870417833328247, 1.4946633577346802, 1.1253502368927002, 1.4774211645126343, -2.4337966442108154, 1.8698844909667969, -2.3251540660858154, 1.3662947416305542, 1.742798089981079, 1.1908259391784668, 0.3931078612804413, -2.381049156188965, 1.38388192653656, 1.4334149360656738, 1.7548362016677856, -2.5701820850372314, -2.3749496936798096, 1.536432147026062, 1.4258387088775635, 1.0824445486068726, 0.9516924023628235], [-1.7070229053497314, -2.0325815677642822, -0.8418976068496704, 0.16357219219207764, 0.15957671403884888, 0.23754805326461792, -0.022360460832715034, -0.03322900831699371, -1.333372950553894, 0.01800936833024025, 0.04001569002866745, -0.8704936504364014, 0.0946681797504425, 0.1634763777256012, 0.35930684208869934, -2.224165678024292, 0.23225988447666168, -1.354508876800537, 0.08142053335905075, -0.027593590319156647, -0.00655392836779356, -0.9539952278137207, -1.9617544412612915, -0.022048238664865494, 0.41988158226013184, 0.12114828079938889, -1.4435532093048096, -1.4632172584533691, 0.0068959565833210945, 0.27954864501953125, 0.01117635890841484, 0.03639015182852745], [0.7423784732818604, 1.8012721538543701, -0.023304684087634087, 0.11901676654815674, -0.08962886780500412, 0.267446905374527, -0.10678628832101822, -0.11427041888237, -0.5273473858833313, -0.8069945573806763, 0.16907978057861328, -2.33807635307312, 0.2279575914144516, -0.43322786688804626, 0.5024036765098572, 0.537090539932251, -0.03680424019694328, 1.7766932249069214, -0.3057142198085785, 0.3727632761001587, -0.6782259941101074, 0.6565579175949097, -3.5948891639709473, -0.16354802250862122, -0.05693458765745163, 0.21927322447299957, -1.3804996013641357, 0.24468126893043518, -0.01928878389298916, -0.29132866859436035, 0.150020569562912, 0.12012282013893127], [-1.5746233463287354, -1.6086493730545044, -1.0048528909683228, 0.027971068397164345, 0.19008536636829376, 0.20944032073020935, 0.1478421688079834, -0.10212662816047668, -1.437999963760376, 0.10513027757406235, 0.0035074970219284296, -0.837056577205658, 0.043264277279376984, 0.15424033999443054, 0.03247448801994324, -1.8567845821380615, 0.09119474142789841, -1.1116037368774414, -0.004931788891553879, 0.1883656531572342, 0.1859186589717865, -0.8915104269981384, -1.9155737161636353, -0.11812465637922287, 0.4064166247844696, 0.03479579836130142, -1.1608177423477173, -1.346642255783081, 0.08855369687080383, 0.2113608717918396, -0.08615230768918991, 0.18260665237903595], [0.9368922710418701, -0.9521898031234741, 0.5049128532409668, 1.2527986764907837, 1.291929006576538, 1.3446589708328247, 1.2076400518417358, 1.1021106243133545, -0.30536216497421265, 1.3323709964752197, 1.3916865587234497, -0.43847283720970154, 1.3339823484420776, 1.2171990871429443, 1.2034095525741577, -2.521480083465576, 1.6990890502929688, -2.2750587463378906, 1.4068055152893066, 1.3307079076766968, 1.1948295831680298, 0.39664188027381897, -2.4326624870300293, 1.4259339570999146, 1.229875922203064, 1.6283379793167114, -2.6184113025665283, -2.319762945175171, 1.5048420429229736, 1.253402590751648, 1.1448583602905273, 1.0476269721984863], [-0.7958685159683228, -3.4002885818481445, -0.9756866693496704, -0.7889670729637146, -0.056340523064136505, -0.6078761219978333, -0.21315300464630127, 0.4701031744480133, -1.5023715496063232, 0.7087735533714294, 0.09808792918920517, 1.08868408203125, -0.19658330082893372, -0.16929742693901062, -0.9747525453567505, -0.8243358731269836, 1.3413289785385132, -4.708518981933594, 0.5876902341842651, 0.35488465428352356, 0.6795592308044434, 1.3087923526763916, 1.5849164724349976, -0.23557880520820618, -0.5111486315727234, 0.17375005781650543, 2.5438361167907715, -3.2485270500183105, 0.5794065594673157, 0.08207487314939499, 0.3655205965042114, -0.7866089940071106], [-0.12039665877819061, -0.1447162628173828, 0.002890743315219879, 0.12227991968393326, -0.17098768055438995, -0.05227161943912506, -0.04337843507528305, 0.03341652825474739, -0.05556275695562363, -0.20465783774852753, -0.08084319531917572, 0.07492516189813614, -0.11998351663351059, 0.041780903935432434, -0.20019428431987762, 0.10485745966434479, -0.0804288312792778, -0.03250624239444733, 0.10824902355670929, -0.18047857284545898, -0.007420205045491457, -0.1553003042936325, -0.170058012008667, -0.19466891884803772, -0.04044729471206665, 0.0852314680814743, -0.009545907378196716, -0.008155390620231628, 0.06592746824026108, -0.08402762562036514, -0.06855873018503189, -0.0768822580575943], [0.8583593964576721, -0.8926284909248352, -1.9518396854400635, 0.5589302182197571, 0.8927217721939087, 0.6100876331329346, 0.5881369709968567, 0.46985292434692383, -2.6169629096984863, 1.0129704475402832, 0.7414318919181824, -3.711986780166626, 0.7237257957458496, 0.9023439288139343, 0.8682608008384705, -1.8672364950180054, 1.5288920402526855, -0.608464777469635, 0.6109394431114197, 0.3549451231956482, 0.7531908750534058, 1.4140689373016357, -4.576641082763672, 0.059991952031850815, 0.9404818415641785, 0.41769716143608093, -1.6444467306137085, -2.4995081424713135, 0.7258542776107788, 0.9754229784011841, 0.9303209185600281, 0.9351966381072998], [-0.34863924980163574, 1.4914323091506958, 0.4780086576938629, 0.7477004528045654, 0.3124866783618927, 1.1647154092788696, 0.9290933609008789, 0.25539764761924744, 0.47376760840415955, -0.49191391468048096, 0.32487428188323975, -0.372789591550827, 0.7508162260055542, 0.49626705050468445, 0.8723570108413696, 2.0568947792053223, -0.8528090715408325, 2.4737870693206787, 0.5060840249061584, 0.7078211307525635, 0.026176007464528084, -1.4503185749053955, -2.8843271732330322, 0.5976094603538513, 0.7689508199691772, 0.7848689556121826, -0.38447922468185425, 1.8576068878173828, 0.004913204815238714, 0.3598702549934387, 0.16501052677631378, 0.5999879837036133], [1.4825565814971924, -1.135746955871582, -2.1623332500457764, 0.4557707607746124, 0.7802008986473083, 0.3404594361782074, 0.48179930448532104, 0.5467227697372437, -2.2922208309173584, 0.8295975923538208, 0.5002347230911255, -4.3921613693237305, 0.6719951629638672, 1.0397483110427856, 0.7111189365386963, -2.0595462322235107, 1.5689547061920166, -0.6753672361373901, 0.49090373516082764, 0.5171290636062622, 0.8129826188087463, 1.436349630355835, -5.721065044403076, -0.013020021840929985, 0.6335229873657227, 0.3141227960586548, -1.7252833843231201, -2.751713275909424, 0.5076606273651123, 0.9495373368263245, 1.016863465309143, 0.7942842841148376], [-2.8915669918060303, 0.760929524898529, -0.48600372672080994, 0.5781153440475464, 0.47277283668518066, 0.35850584506988525, 0.30056777596473694, 0.5763947367668152, -2.5713748931884766, -0.03952295333147049, 0.47717413306236267, -4.693395614624023, 0.13948045670986176, -0.10891368240118027, 0.16320976614952087, 0.3611214756965637, -0.3184763789176941, 0.6048155426979065, 0.11418821662664413, 0.1539306938648224, 0.1928260773420334, -3.3260467052459717, -4.877291679382324, 0.7430562376976013, 0.5088373422622681, 0.26215487718582153, -3.2665607929229736, 0.08845648169517517, 0.4327666163444519, -0.3205893635749817, 0.0026758022140711546, 0.22710534930229187], [-1.7004626989364624, -1.9689617156982422, -0.9142588973045349, 0.07167179882526398, 0.07715508341789246, 0.12444049119949341, -0.09192723035812378, 0.05430478975176811, -1.432379126548767, 0.2180882692337036, 0.26385360956192017, -0.8801875114440918, 0.11659063398838043, 0.07951551675796509, 0.18766990303993225, -2.232032537460327, 0.19665169715881348, -1.3154197931289673, 0.019802425056695938, 0.26805734634399414, 0.24132055044174194, -0.965964138507843, -2.088902235031128, 0.0019472612766548991, 0.11142439395189285, -0.04577990993857384, -1.281348705291748, -1.6580760478973389, 0.0032479772344231606, 0.17478586733341217, -0.03821840509772301, 0.0009652774315327406], [0.6883273124694824, -0.9843168258666992, -0.3322533965110779, 1.123847246170044, 1.2183183431625366, 1.286968469619751, 1.0953954458236694, 1.0019513368606567, -1.087195634841919, 1.1416670083999634, 1.3659429550170898, -0.6790419816970825, 1.0919076204299927, 1.1410413980484009, 1.0552839040756226, -2.530658721923828, 1.7122504711151123, -2.185746908187866, 0.9996358156204224, 1.4929699897766113, 1.2047725915908813, 0.2886953353881836, -2.728595495223999, 1.3038290739059448, 1.1608744859695435, 1.4478880167007446, -2.857792377471924, -2.577666759490967, 1.4259551763534546, 1.2942070960998535, 0.9000965356826782, 1.0838139057159424], [0.12110190838575363, -0.05951565131545067, 0.05512721836566925, 0.13348956406116486, -0.15697242319583893, -0.0585833415389061, -0.10283993184566498, 0.007284641265869141, -0.05670890212059021, -0.11425042152404785, 0.048825256526470184, -0.20419545471668243, -0.10673980414867401, 0.05103911831974983, 0.05745294690132141, -0.14376723766326904, 0.0320732481777668, -0.0473211444914341, -0.159979909658432, -0.11738911271095276, -0.11917043477296829, -0.1472032517194748, -0.10697723180055618, 0.026442155241966248, 0.010313103906810284, -0.036965928971767426, 0.09213337302207947, 0.025223609060049057, 0.04003329947590828, -0.0053900121711194515, -0.13434651494026184, -0.0020618909038603306], [-1.8519264459609985, 1.342760682106018, 0.5650231838226318, 0.7665148973464966, -0.12183934450149536, 0.6970797181129456, 0.6029896140098572, 0.2539856433868408, 1.1118214130401611, -0.8155627846717834, -0.13675029575824738, -1.7447035312652588, 0.6320596933364868, 0.06707561016082764, 0.8027746081352234, 1.7098232507705688, -2.0664122104644775, 1.5974098443984985, -0.03427837789058685, 0.6028892397880554, -0.58958899974823, -2.6651735305786133, -3.5265872478485107, 0.29244932532310486, 0.4093904197216034, 0.43542689085006714, -1.1090067625045776, 1.3891911506652832, -0.0729818269610405, -0.27371683716773987, -0.6656985282897949, 0.5092764496803284], [0.00498923659324646, 0.1478014439344406, 0.06670857965946198, 0.14402903616428375, -0.0883668065071106, -0.024884968996047974, -0.1609450876712799, -0.12697327136993408, -0.13075032830238342, 0.013652056455612183, -0.017375126481056213, 0.04450881481170654, -0.15160657465457916, -0.1517723798751831, 0.1288578063249588, -0.06743510067462921, 0.11894585192203522, -0.07922020554542542, -0.11705385148525238, -0.086099773645401, -0.13485004007816315, -0.0044136643409729, 0.0003923177719116211, 0.017341822385787964, 0.05994565784931183, 0.019209936261177063, 0.1393829733133316, -0.14559835195541382, -0.12111157923936844, -0.13340802490711212, -0.061634182929992676, -0.1140783280134201], [1.057868242263794, -1.2476986646652222, -1.535404086112976, 0.8001402616500854, 0.671772301197052, 0.6769464015960693, 0.4310168921947479, 0.5915094614028931, -2.2795732021331787, 0.8026989698410034, 0.6629229784011841, -2.648777484893799, 0.7122649550437927, 0.8202776312828064, 0.521732747554779, -2.2798633575439453, 1.766626238822937, -1.223429799079895, 0.7623580694198608, 0.5919954776763916, 0.9214450120925903, 1.376112937927246, -4.065850734710693, 0.013415387831628323, 0.7335511445999146, 0.5290784239768982, -2.16235613822937, -2.5461206436157227, 0.7420215010643005, 1.0829604864120483, 0.9987775087356567, 0.649075984954834], [0.002037912607192993, -0.03432111442089081, 0.014215761795639992, -0.1352752149105072, -0.1426500529050827, -0.12816442549228668, -0.14186348021030426, -0.1702631115913391, -0.10315006971359253, -0.033920809626579285, 0.1330294907093048, -0.023940742015838623, 0.03684583306312561, -0.09288191795349121, -0.07378078997135162, 0.08447270095348358, 0.10722392052412033, 0.1352631151676178, -0.08035817742347717, 0.1470351219177246, -0.17325550317764282, 0.13590289652347565, -0.11799309402704239, 0.014929130673408508, -0.00043417245615273714, -0.13434430956840515, -0.09423486888408661, -0.1063237339258194, 0.06609433144330978, -0.09557165205478668, -0.08536992222070694, -0.02129516191780567], [1.2637351751327515, -0.8788148164749146, -1.9412957429885864, 0.796379029750824, 0.7139194011688232, 0.5871631503105164, 0.5365937948226929, 0.7331184148788452, -2.2792558670043945, 0.9547645449638367, 0.8367475271224976, -3.8142082691192627, 0.6821164488792419, 0.9160894155502319, 0.7163469195365906, -1.8964205980300903, 1.5685844421386719, -0.45295920968055725, 0.5484145283699036, 0.6384133100509644, 1.0248186588287354, 1.2986446619033813, -4.975431442260742, 0.1110910102725029, 0.748407781124115, 0.5705370903015137, -1.733993649482727, -2.6372060775756836, 0.7148459553718567, 1.1044155359268188, 1.2116284370422363, 0.8913222551345825], [0.8886939287185669, -0.7056822180747986, -0.7980570197105408, 1.113582968711853, 1.0026912689208984, 0.9124546647071838, 0.9579873085021973, 0.9817260503768921, -1.515386939048767, 1.2007100582122803, 1.0439887046813965, -1.2918379306793213, 1.1519407033920288, 1.1063487529754639, 1.2029871940612793, -2.4150121212005615, 1.8271145820617676, -1.2889046669006348, 0.8347815871238708, 1.1930090188980103, 1.027809500694275, 0.7297731637954712, -2.805737018585205, 0.714965283870697, 1.1858114004135132, 1.1690813302993774, -2.9973666667938232, -2.475137948989868, 1.1919865608215332, 1.3755218982696533, 1.0987236499786377, 1.1325595378875732], [1.0820344686508179, -0.9135478734970093, -0.4682992100715637, 1.227503776550293, 1.1660929918289185, 0.8540268540382385, 1.0844266414642334, 1.0166858434677124, -1.5140080451965332, 1.1125434637069702, 1.0454270839691162, -1.2889456748962402, 1.071676254272461, 1.2221474647521973, 1.0954617261886597, -2.405724048614502, 1.7912793159484863, -1.307117223739624, 1.0176523923873901, 0.991624116897583, 1.0913598537445068, 0.615591824054718, -2.6242926120758057, 0.6704981327056885, 1.1687493324279785, 1.012290120124817, -3.0258889198303223, -2.4011659622192383, 0.9535132646560669, 1.344030737876892, 1.0871942043304443, 1.0472428798675537], [-1.5558226108551025, -1.9209046363830566, -1.0972418785095215, 0.18971864879131317, -0.07199519127607346, 0.06953924894332886, 0.23723077774047852, -0.20506761968135834, -1.0440270900726318, 0.08159784227609634, 0.13713517785072327, -0.9342324733734131, 0.2547188103199005, 0.2742196321487427, 0.30300143361091614, -1.8468523025512695, -0.13238012790679932, -1.121566891670227, 0.1221901997923851, 0.06329852342605591, -0.029576415196061134, -0.7371283173561096, -2.1640663146972656, 0.1286965161561966, 0.0965597927570343, 0.19488389790058136, -1.2527148723602295, -1.3595771789550781, 0.013927238062024117, 0.26663658022880554, -0.050316937267780304, 0.19125787913799286], [-0.16720591485500336, -1.8650519847869873, -1.940772533416748, -0.8306872248649597, 0.13976238667964935, 0.07609596103429794, 0.171637162566185, 0.024744130671024323, -4.814286231994629, 0.35875529050827026, 0.34287235140800476, -0.024134082719683647, -0.03405265510082245, 0.04316522181034088, -0.9017660617828369, -0.8633542656898499, 0.11017950624227524, -2.45145845413208, 0.1700459122657776, 0.24048545956611633, 0.18575136363506317, 0.1426728516817093, -0.5630390644073486, 0.30655258893966675, -0.11017964780330658, 0.055415187031030655, 0.4834194779396057, -2.2374980449676514, 0.0586269348859787, 0.22579987347126007, -0.1223984807729721, -0.7288995385169983], [0.05779755115509033, -0.11125998944044113, 0.012720927596092224, -0.007880717515945435, -0.0480739027261734, 0.05175584554672241, 0.13176797330379486, 0.08101676404476166, -0.15748220682144165, 0.15970294177532196, -0.15363329648971558, -0.13835950195789337, -0.16470332443714142, 0.16188932955265045, -0.13923780620098114, 0.006463542580604553, -0.07985297590494156, 0.06419308483600616, -0.043217822909355164, 0.0027502477169036865, -0.1077277883887291, -0.14700593054294586, -0.09011700004339218, -0.16638852655887604, -0.1001359149813652, -0.15591014921665192, -0.1283094584941864, -0.13400645554065704, -0.13084979355335236, -0.04927021265029907, -0.11577880382537842, 0.054293230175971985]], "fc.2.bias": [0.10033304989337921, 0.20264415442943573, 0.051185015588998795, 0.688094973564148, 0.1048189252614975, 0.4991992115974426, 1.3865033388137817, 5.875527858734131e-05, 1.5640795230865479, 0.018886100500822067, -0.03032708913087845, 0.009584725834429264, 1.2968480587005615, 0.22103509306907654, -0.1560969054698944, 0.39510220289230347, 0.394008994102478, 0.5863953232765198, -0.09423112124204636, 0.007477828301489353, 1.3838175535202026, -0.1442202925682068, -0.0344298891723156, -0.13994738459587097, 0.7007020711898804, -0.07324235141277313, 0.6944092512130737, 1.214655876159668, 1.2159180641174316, -0.0886497050523758, -0.17352664470672607, -0.16696450114250183], "fc.4.weight": [[-0.031137697398662567, 0.11210937052965164, 1.125780701637268, -2.286200761795044, -0.12189336866140366, 2.1563973426818848, 1.591166615486145, -0.00898069143295288, 2.1449222564697266, 1.3711035251617432, -1.2476317882537842, 1.346562385559082, 2.2522430419921875, 0.18496261537075043, -0.09839151799678802, 2.4147706031799316, -2.3921656608581543, 2.334469795227051, -2.3396103382110596, 1.2419264316558838, 2.112082004547119, 0.047759730368852615, -1.60624361038208, 0.17451749742031097, 2.485337495803833, -0.06192389130592346, 2.2998123168945312, 1.8841028213500977, 1.9299460649490356, 1.4169588088989258, -0.6937772631645203, 0.06567299365997314], [-0.06067229434847832, -1.955815076828003, 1.119541049003601, -1.1249428987503052, 0.01616641879081726, 2.7873265743255615, 1.8445134162902832, 0.04246954619884491, 1.7684481143951416, 1.1474156379699707, 1.8779722452163696, 1.1838631629943848, 1.7811728715896606, -2.176586389541626, 0.018039966002106667, 2.828246593475342, -1.2040907144546509, 2.881537914276123, -0.8646119832992554, 1.3642247915267944, 1.705798625946045, 0.14293427765369415, -2.493974447250366, 0.02038101851940155, 2.2693774700164795, -0.11481648683547974, 2.581695318222046, 2.0402841567993164, 2.082167625427246, 1.0118165016174316, -0.8370687365531921, -0.08165934681892395]], "fc.4.bias": [1.5522868633270264, 0.9635738730430603]}